digraph Tree {
node [shape=box, style="filled, rounded", color="black", fontname="helvetica"] ;
edge [fontname="helvetica"] ;
0 [label="sepal length (cm) <= 5.75\ngini = 0.66\nsamples = 95\nvalue = [55, 38, 57]\nclass = virginica", fillcolor="#fcfbfe"] ;
1 [label="sepal width (cm) <= 2.95\ngini = 0.4\nsamples = 47\nvalue = [54, 19, 1]\nclass = setosa", fillcolor="#eeaf81"] ;
0 -> 1 [labeldistance=2.5, labelangle=45, headlabel="True"] ;
2 [label="sepal length (cm) <= 4.65\ngini = 0.2\nsamples = 14\nvalue = [1, 16, 1]\nclass = versicolor", fillcolor="#50e890"] ;
1 -> 2 ;
3 [label="gini = 0.0\nsamples = 1\nvalue = [1, 0, 0]\nclass = setosa", fillcolor="#e58139"] ;
2 -> 3 ;
4 [label="sepal width (cm) <= 2.75\ngini = 0.11\nsamples = 13\nvalue = [0, 16, 1]\nclass = versicolor", fillcolor="#45e789"] ;
2 -> 4 ;
5 [label="gini = 0.0\nsamples = 8\nvalue = [0, 12, 0]\nclass = versicolor", fillcolor="#39e581"] ;
4 -> 5 ;
6 [label="petal length (cm) <= 4.7\ngini = 0.32\nsamples = 5\nvalue = [0, 4, 1]\nclass = versicolor", fillcolor="#6aeca0"] ;
4 -> 6 ;
7 [label="gini = 0.0\nsamples = 4\nvalue = [0, 4, 0]\nclass = versicolor", fillcolor="#39e581"] ;
6 -> 7 ;
8 [label="gini = 0.0\nsamples = 1\nvalue = [0, 0, 1]\nclass = virginica", fillcolor="#8139e5"] ;
6 -> 8 ;
9 [label="petal length (cm) <= 3.2\ngini = 0.1\nsamples = 33\nvalue = [53, 3, 0]\nclass = setosa", fillcolor="#e68844"] ;
1 -> 9 ;
10 [label="gini = 0.0\nsamples = 32\nvalue = [53, 0, 0]\nclass = setosa", fillcolor="#e58139"] ;
9 -> 10 ;
11 [label="gini = 0.0\nsamples = 1\nvalue = [0, 3, 0]\nclass = versicolor", fillcolor="#39e581"] ;
9 -> 11 ;
12 [label="sepal length (cm) <= 7.05\ngini = 0.39\nsamples = 48\nvalue = [1, 19, 56]\nclass = virginica", fillcolor="#ad7eee"] ;
0 -> 12 [labeldistance=2.5, labelangle=-45, headlabel="False"] ;
13 [label="petal length (cm) <= 4.85\ngini = 0.45\nsamples = 41\nvalue = [1, 19, 41]\nclass = virginica", fillcolor="#bd97f1"] ;
12 -> 13 ;
14 [label="petal width (cm) <= 1.7\ngini = 0.34\nsamples = 14\nvalue = [1, 16, 3]\nclass = versicolor", fillcolor="#68eb9f"] ;
13 -> 14 ;
15 [label="petal width (cm) <= 0.6\ngini = 0.12\nsamples = 12\nvalue = [1, 15, 0]\nclass = versicolor", fillcolor="#46e789"] ;
14 -> 15 ;
16 [label="gini = 0.0\nsamples = 1\nvalue = [1, 0, 0]\nclass = setosa", fillcolor="#e58139"] ;
15 -> 16 ;
17 [label="gini = 0.0\nsamples = 11\nvalue = [0, 15, 0]\nclass = versicolor", fillcolor="#39e581"] ;
15 -> 17 ;
18 [label="sepal length (cm) <= 6.05\ngini = 0.38\nsamples = 2\nvalue = [0, 1, 3]\nclass = virginica", fillcolor="#ab7bee"] ;
14 -> 18 ;
19 [label="gini = 0.0\nsamples = 1\nvalue = [0, 1, 0]\nclass = versicolor", fillcolor="#39e581"] ;
18 -> 19 ;
20 [label="gini = 0.0\nsamples = 1\nvalue = [0, 0, 3]\nclass = virginica", fillcolor="#8139e5"] ;
18 -> 20 ;
21 [label="petal width (cm) <= 1.75\ngini = 0.14\nsamples = 27\nvalue = [0, 3, 38]\nclass = virginica", fillcolor="#8b49e7"] ;
13 -> 21 ;
22 [label="petal length (cm) <= 5.05\ngini = 0.48\nsamples = 5\nvalue = [0, 3, 2]\nclass = versicolor", fillcolor="#bdf6d5"] ;
21 -> 22 ;
23 [label="gini = 0.0\nsamples = 3\nvalue = [0, 3, 0]\nclass = versicolor", fillcolor="#39e581"] ;
22 -> 23 ;
24 [label="gini = 0.0\nsamples = 2\nvalue = [0, 0, 2]\nclass = virginica", fillcolor="#8139e5"] ;
22 -> 24 ;
25 [label="gini = 0.0\nsamples = 22\nvalue = [0, 0, 36]\nclass = virginica", fillcolor="#8139e5"] ;
21 -> 25 ;
26 [label="gini = 0.0\nsamples = 7\nvalue = [0, 0, 15]\nclass = virginica", fillcolor="#8139e5"] ;
12 -> 26 ;
}